14 100
SDFFSRX1 0.18514667 0.1420387 0.14551969 -0.010861171 -0.09314193 -0.21793072 -0.17786601 -0.023538943 -0.34056574 -0.010007659 0.20750254 0.20320868 -0.06303851 0.022390718 0.18009633 0.13969117 -0.13563529 -0.13852952 0.0063783326 -0.110924095 0.114820085 -0.023210239 -0.07893701 -0.0685874 0.10083215 -0.18952575 -0.08884271 0.012898604 -0.020923814 -0.13860902 0.055431042 0.006492865 0.17447595 -0.00629507 0.08605585 -0.048503418 0.03762621 0.1803052 0.06379057 -0.032405417 -0.13400902 -0.031077033 -0.08287023 0.046560317 -0.038954325 -0.021390267 -0.07771824 0.20480843 0.13728867 0.063591555 -0.09235363 0.21534346 0.11910631 0.21374571 0.12687038 -0.006597056 -0.038931344 -0.09563864 -0.073688 0.021319367 0.08767862 0.09214262 -0.16237463 -0.010899758 -0.027904147 -0.043325547 0.03950842 -0.04965601 0.15467538 0.13704447 -0.07460273 0.008265474 -0.11610076 -0.1618771 0.070174955 0.15024896 -0.0025163211 0.024399132 0.16415355 -0.08085141 0.081224896 -0.0018387908 -0.00072813587 -0.0011296317 0.062522165 0.10575491 -0.20372072 -0.011788648 0.11244909 0.104021646 0.065731525 0.03298794 0.041312788 0.13737018 -0.111296855 -0.15424594 -0.20719895 0.10924204 -0.038648356 0.096403934
INVX1 -0.026634322 0.22052294 -0.02842654 -0.07555659 -0.025709234 -0.123690695 0.002722198 -0.26236898 -0.2509146 -0.11993962 0.046629667 0.08733582 0.03883499 0.05986689 0.28450957 0.35286537 -0.062450953 -0.09893038 -0.12269326 -0.07992569 0.15483227 0.15013319 -0.051004197 -0.19729865 0.17792407 -0.12544048 -0.084815614 0.0218852 -0.083392784 -0.1711018 0.1384648 0.01086538 0.12237361 0.05805896 0.022959702 0.027029755 0.03177471 0.25562435 0.15296376 0.048704363 -0.04650634 0.019706339 -0.0007820844 -0.069955066 0.021122657 0.15434681 -0.13540696 0.17409666 0.13749662 0.040169105 -0.080880664 0.19025718 -0.108380504 0.11387727 0.12324045 0.04239567 0.07089342 -0.000606541 -0.075767994 0.085330285 0.002599236 0.16736938 -0.11387463 0.0027462016 -0.01616566 -0.0035921275 0.038598794 -0.08447959 0.18538731 0.19150762 -0.07545351 -0.1290516 -0.07556397 -0.13133308 0.008887228 0.029387323 0.044131663 -0.019296652 0.12265235 -0.0987506 0.06337539 -0.11031693 0.053950652 0.037428796 0.14769745 0.1030479 -0.18006366 -0.20492715 0.21771343 0.039178163 -0.084184565 0.16675311 0.22172555 0.030665122 0.012707526 0.022759208 -0.095575444 0.063126534 -0.046782825 0.12974893
NAND4X1 0.34384075 0.1448516 0.13903072 -0.14292368 -0.11019128 -0.13630946 -0.109878674 0.011589683 -0.2955811 -0.03631444 0.15359765 0.028040648 -0.043747786 0.13785802 -0.0055482066 0.03001647 -0.09026988 0.03374679 -0.053681035 -0.11472834 0.067405984 0.093547165 -0.082723774 -0.13212015 0.17212869 -0.1204299 -0.04888246 -0.02093367 -0.082530044 -0.040237453 -0.10610931 0.0035032942 0.1471218 -0.060646538 -0.07469108 -0.07448488 0.045288682 0.004825013 0.11592635 -0.09818921 -0.10216223 0.0047209677 -0.1122504 -0.09357584 -0.09442657 0.021479178 -0.13626808 0.16230571 0.07779176 0.15425879 -0.15074325 0.021739013 0.13400619 0.20415609 0.12140662 0.050305877 0.055443272 -0.11564016 -0.12069284 0.11252785 0.028479788 -0.014377885 -0.20156537 -0.07335588 0.008781122 0.055554938 -0.089395195 -0.095886484 0.074684694 0.055030573 0.03153797 0.015715638 0.048748415 -0.25129715 0.0029881448 0.033280935 0.11005219 -0.13434218 0.041649513 -0.04584565 0.07554299 0.023843346 -0.072676845 -0.00211257 0.041175332 0.09550493 -0.15386477 -0.044785257 0.09058016 0.17821224 0.078937195 0.0015518662 -0.040576357 0.103906006 -0.10366039 0.031018743 -0.24308957 0.008232797 0.0051707295 0.0859809
NOR2X1 -0.103967555 0.32116592 0.055233967 -0.13938038 -0.06411233 -0.068963274 -0.027381428 -0.039839868 -0.2783574 -0.14037496 0.0319992 0.2527438 -0.09283876 -0.0739173 0.25505456 0.04274264 -0.08260653 -0.10083409 -0.11678497 -0.08480394 0.07111995 0.016952533 0.0041809776 0.03248186 0.23374404 -0.1601787 -0.09773903 0.015205843 -0.12013467 0.0705094 0.1694737 -0.109123826 0.04447476 -0.16341788 -0.032145105 -0.023608899 -0.018408345 0.25170332 0.14621352 -0.055875856 -0.07345557 -0.050804965 -0.040169436 0.018013226 -0.07677151 0.011576081 -0.0068937414 0.16164844 0.03182569 0.026517535 0.045099113 -0.008624918 -0.046775706 0.17175308 -0.113870665 -0.013159996 0.15542883 -0.12000218 -0.20462996 1.5348842e-06 0.13815245 0.10172964 0.116083235 -0.006477604 -0.0018120983 0.13018224 0.31415612 -0.012221455 0.048125513 0.12474665 -0.016388169 -0.026537905 0.01705406 -0.047406677 0.05210237 0.27370954 -0.03187712 0.093845494 0.10059322 0.034078795 0.12776157 -0.12279456 -0.016044816 -0.06784131 0.1528621 0.0075458293 -0.26368737 -0.17142263 0.23660345 0.045375444 0.09525092 0.27224547 0.164616 -0.11333636 0.09488532 0.05645464 0.03828223 -0.015271845 -0.01888657 0.12653014
AOI22X1 0.1566654 0.28454244 -0.023110447 -0.054864746 0.2661052 -0.10333562 -0.25745693 0.0010685647 -0.3444293 0.23542319 0.10504968 0.06685259 0.14829801 -0.065464996 0.44454166 -0.014435476 0.047989976 0.15398534 -0.25834805 -0.17222586 -0.024751052 -0.060602028 0.080057316 -0.149274 -0.063795835 -0.11222582 0.195311 -0.03005929 -0.0168124 -0.058353275 0.072655484 -0.1399298 0.022904534 -0.052364595 0.102302335 0.07297558 0.11230452 0.12856239 -0.015273047 -0.06406701 -0.21090117 0.0022175424 0.12430981 0.011772455 0.018609626 0.14262964 -0.01860413 0.10601563 -0.017326234 0.026980745 -0.046630096 0.062319465 -0.07927642 0.09322555 -0.036305957 -0.020892065 0.10176399 -0.004302751 -0.15106301 -0.10441969 0.117361836 0.07178726 -0.08493296 -0.065998234 -0.016770588 0.078532934 0.03295853 0.03193547 -0.004224192 0.08922598 -0.00338131 -0.023047859 -0.0022226677 -0.004684104 -0.013552483 0.15363206 0.076254904 0.11859851 -0.028958578 0.047665063 0.12718174 -0.04428049 -0.16217518 -0.046579033 0.14213 0.07559206 -0.21825118 -0.1400491 0.20410953 0.08892911 -0.027373325 0.041766718 0.014558355 0.11253422 -0.052440923 -0.02513272 -0.114973396 -0.0625377 -0.043485716 -0.073718
AND2X1 0.31580728 -0.015052082 0.04066876 -0.15788269 0.15215808 0.09849758 -0.015210173 -0.045739535 -0.1909329 0.016537359 -0.18910898 0.021258827 -0.06887515 0.09528739 0.06508017 -0.006690051 -0.11852303 0.04894053 -0.064653456 -0.21408547 -0.021193432 -0.035418622 0.084094994 -0.19533303 0.05607222 -0.12587352 -0.10083327 0.009906598 -0.0682072 0.002328247 -0.018369019 -0.11647546 0.1603691 -0.046866637 -0.045221787 -0.023633631 0.057704166 0.08977645 0.15780374 -0.1657028 -0.1373267 -0.052881625 -0.13139963 -0.05680135 -0.21144281 0.09071389 -0.001642222 0.12532632 -0.0041463375 0.20166232 -0.068162054 -0.121135324 0.09668605 0.30347687 0.09144438 0.07535349 0.17780538 -0.05565028 -0.15421587 0.11814824 -0.084741324 -0.0072797714 -0.1924584 -0.12795092 -0.068896785 0.2124112 0.04427521 -0.12271303 0.0065733935 0.16937737 -0.078090504 0.039719973 0.106906116 -0.11729896 0.027196862 0.027391693 0.056051016 -0.10238789 0.0012718572 -0.017184472 0.10000938 0.05100306 -0.12827781 -0.06566765 0.1311359 0.114530414 -0.26641017 -0.29361627 0.20506313 0.23742978 0.10314686 0.01284982 -0.049566384 0.07185665 -0.12877105 0.06260475 -0.1718014 -0.024966853 -0.07805845 0.0961772
NAND2X1 0.035609882 0.116608314 -0.08314868 0.010473489 0.2415079 -0.010068292 0.16681226 -0.008705459 -0.2546977 -0.07356269 -0.025183117 0.15111522 -0.04215225 0.13139339 0.24683948 0.13336004 -0.08060146 0.019302918 -0.15956342 -0.21749012 0.08883281 -0.016782632 0.19110684 -0.1285829 0.10445644 -0.14647882 -0.05020998 0.045904834 -0.12039437 -0.16722336 0.16578041 -0.14420873 0.20469448 -0.015386621 0.12094154 0.062867485 0.14597717 0.25808948 0.15914823 -0.09439728 -0.23159209 -0.014761258 -0.11414983 0.021391079 -0.13257052 0.118828826 -0.016940242 0.21241912 0.03395052 0.05809968 -0.04869632 0.11565223 -0.1037398 0.2303773 0.18134288 -0.011451118 0.1979128 -0.07521231 -0.11753072 0.04199667 -0.08078203 0.11189545 -0.12041143 -0.11457398 -0.07498137 0.05258499 0.105109364 -0.06996652 0.12567805 0.24647401 -0.16323903 -0.03461695 -0.078184985 -0.019209484 0.07098684 0.06835182 -0.023946077 0.015492439 0.07898433 -0.062179245 0.13697484 -0.04429365 0.09430485 -0.029427236 0.1215872 0.15342651 -0.24367385 -0.28926396 0.18207665 0.12719046 0.021883542 0.11852751 0.13133872 0.055721514 -0.056254096 0.016052276 -0.10673765 0.020822821 -0.11511407 0.07803302
AOI21X1 0.18213698 0.32233545 0.21923977 -0.10131633 0.2366045 0.22776802 0.07158742 -0.16990638 -0.15425165 0.2685675 -0.052130118 0.23025495 0.052304227 0.11212736 0.1110625 -0.13537483 -0.010077545 0.22927934 -0.17378438 0.05307694 0.20714292 0.09384606 0.03791539 0.0030482959 0.43302542 -0.024974648 0.047394544 -0.15601672 -0.124030516 0.0017666307 0.08628597 -0.07532241 0.120401904 -0.12221191 -0.004734484 -0.09223688 -0.054276355 0.1428291 0.132988 -0.2292244 -0.28297853 0.011598145 0.04827953 0.04539816 -0.122630246 0.024154944 -0.03156755 0.061150715 -0.04005711 -0.059515577 -0.037405144 0.0013375656 -0.1008185 0.04798397 0.03823025 -0.036947016 0.13275549 -0.13186611 -0.15418626 0.010957153 0.05163438 -0.029419506 0.003058119 0.036613192 0.03157593 0.08450075 0.15171191 0.027210053 0.061536293 0.11447432 -0.045450624 -0.11821114 0.029159283 -0.06574828 0.00760733 0.08113614 0.06259166 -0.035824332 -0.021920692 0.026155284 0.061796784 -0.06407727 -0.07214697 -0.039444093 0.13661653 0.13416345 -0.10718037 -0.17549448 0.102334164 0.051683694 0.06635681 0.056845434 0.06685811 -0.04837336 -0.13343033 0.098695666 -0.021426704 0.020583982 -0.06736371 0.09093375
OAI21X1 -0.05668959 0.1788982 0.4384707 -0.17766123 -0.22042163 -0.34665775 -0.15344252 0.18272105 -0.45714548 -0.04205583 0.37938058 0.2608866 -0.113607295 0.15947968 0.0770124 0.11388673 -0.045308672 -0.11061139 -0.06299155 -0.15589991 0.24259232 -0.09698565 0.01726476 0.014924388 0.14374876 -0.22618292 -0.043107104 0.1287153 -0.15505932 -0.14545651 0.0652804 0.06040153 0.20399596 -0.11939024 0.084459715 -0.060855154 0.09538535 0.094865 -0.04197479 -0.037440542 -0.1388749 -0.01683319 -0.0791159 0.010265832 0.098025925 0.016903738 -0.13153568 0.21895184 0.20258208 0.06744104 -0.10674297 0.2786008 0.11059368 0.14625305 0.09394082 -0.099053524 -0.102541015 -0.13293736 -0.10169358 -0.026562957 0.15746853 0.09294247 -0.1505601 -0.028740928 -0.042192318 -0.060541343 0.04711411 0.055720445 0.12559341 0.1340547 -0.07410685 0.06540851 -0.18437119 -0.1489612 0.119846836 0.12085983 -0.012722082 0.15319152 0.20690185 -0.13715164 0.046530083 0.019728756 -0.0072363336 -0.004201831 0.016108084 0.04951374 -0.12969059 -0.0068509975 0.05321286 0.07082648 0.006833806 -0.012476136 0.028153662 0.14213799 -0.0022746269 -0.201169 -0.24063352 0.070848405 -0.07582577 0.13766418
NAND3X1 0.36060613 0.23510754 -0.04179391 0.06892827 -0.22905008 -0.23944922 -0.264031 -0.35063753 -0.39906308 -0.25768837 0.13269004 0.0048289285 0.05313495 -0.019493993 0.30285105 0.17270675 -0.032878477 0.0065906434 -0.0662285 -0.21086074 0.067779385 0.015291025 -0.028308153 -0.16509986 -0.07249353 -0.094573386 0.0626586 -0.016573159 -0.045984585 -0.042733703 0.052301202 0.07401552 0.13612604 -0.004268085 0.19381154 0.018344706 -0.025885481 0.2098963 -0.13095966 -0.024565395 -0.06449704 -0.11743464 -0.039340418 0.1842509 0.15150847 -0.06208548 -0.12755853 0.13887715 0.14192702 -0.022719707 -0.13038614 0.19427769 0.2001786 0.11326103 -0.06958477 -0.03102223 -0.21850768 -0.11787641 -0.10374954 -0.14809805 0.24092887 0.004715298 -0.06665972 0.07227431 -0.13000637 0.08754143 -0.034121662 0.094719455 0.0494757 0.15360656 -0.071223475 0.11590701 -0.046644676 0.00993004 -0.0004646963 0.34708816 0.10623384 0.09242019 0.20527203 -0.1815168 -0.030315235 -0.06792176 -0.15935853 -0.024086034 0.05917751 -0.026360689 -0.18312126 0.057827953 0.25783306 0.043687273 0.07402955 -0.026755804 -0.017169064 0.19962351 -0.0766828 -0.21576625 -0.10370554 0.0077954223 0.005587868 -0.07511525
XOR2X1 0.23625128 0.33660138 0.100420915 -0.101065606 -0.007829839 0.17417005 0.14839093 -0.30749756 -0.20777018 -0.02335249 -0.0956134 -0.000589854 0.033531487 0.14552024 0.008983293 -0.07826902 0.01811915 0.27353346 -0.23199882 -0.0149341235 0.17217125 0.25715193 0.04929885 -0.023287123 0.39882722 0.010870912 0.12506641 -0.16248153 -0.23143375 0.07013659 0.025023477 -0.045550648 0.103675455 -0.21121176 -0.0611194 -0.025745051 0.003857771 0.11912817 0.15128124 -0.19756861 -0.15837222 0.0026717535 -0.056483634 -0.032240376 -0.03354599 0.014883367 -0.16544923 0.13947283 0.029451283 -0.024019675 -0.11299695 -0.03518095 -0.04129019 0.03891464 -0.010539105 -0.0066369204 0.15281914 -0.20865798 -0.207068 0.02943493 0.13202716 -0.056190617 0.046600264 -0.011159666 0.064082116 0.13679172 0.036000747 0.07631945 0.008442681 0.033440147 0.06494901 -0.06980898 0.14234938 -0.12073498 -0.051315147 0.113865934 0.16132627 -0.10275829 -0.0017073097 -0.0665284 0.019421833 -0.14500536 -0.06764393 -0.031450495 0.097673036 0.025107073 -0.05614687 -0.0874593 0.14883034 0.05798749 0.07827257 0.11907622 0.04930261 -0.056444656 0.008426654 0.20119427 -0.058726963 -0.110341035 0.018664319 0.04611351
OR2X1 0.3173391 -0.15045987 -0.1889991 -0.2821563 -0.14360733 0.085966915 0.05796142 -0.0064043463 -0.23980044 -0.052942492 -0.30126068 -0.12876415 -0.065749735 0.0451344 -0.12542003 -0.03550837 -0.13222021 0.059728906 -0.07554596 -0.3930476 -0.041098278 0.038143706 0.27346992 -0.14025895 0.062285393 -0.12956338 0.034326255 -0.011800212 -0.18496053 0.040851682 0.048880804 -0.19031404 0.37236422 -0.068955615 0.07823725 0.15384266 0.26294845 0.25405467 0.18167624 -0.20063192 -0.1585899 -0.07242021 -0.5381978 0.10753403 -0.19358794 -0.1180079 -0.11912156 0.386406 0.05456114 0.20982085 -0.16125709 0.03524101 0.15897283 0.34772366 0.2182333 -0.06027606 0.11298281 -0.30969074 -0.07225582 0.087574884 -0.10261788 -0.06347032 -0.0055087805 -0.26263255 -0.23977797 0.21099971 -0.108119026 -0.025563871 -0.027206363 0.14705203 -0.027136138 0.3499777 0.09004155 -0.032409657 0.037207525 0.24370229 0.1204934 -0.19950826 0.12453081 -0.21933693 0.08748411 -0.015267434 0.13294548 0.018920051 -0.09590665 -0.010150286 -0.30187547 -0.12761621 0.24133626 0.34585333 0.1998227 0.106166616 -0.008455619 0.1775082 0.10439982 0.057202004 -0.22667503 -0.112911895 0.12559216 -0.0836527
OR4X1 0.14456461 0.14828071 0.010665382 -0.046728875 0.03276228 0.23615272 -0.27297324 -0.23798402 -0.3202228 0.030403074 -0.31584907 -0.18813512 0.021088371 0.088151164 0.15394656 -0.15072942 -0.08910183 0.25900072 -0.12832114 0.025713282 -0.01890856 0.12445122 -0.2544064 -0.22718316 0.47809887 -0.05570358 -0.082927525 0.068328165 -0.20674218 0.17600846 -0.12566103 -0.06013745 -0.042685438 -0.041282274 -0.36765817 -0.3380078 -0.28987244 -0.0014800236 0.24673562 -0.17573488 -0.20876348 0.15000573 0.17912002 -0.1785368 -0.21125409 0.1650247 0.08883121 -0.14720441 -0.19171405 0.16736586 0.07776503 -0.26821613 -0.1160597 -0.05136137 -0.06820024 -0.03317368 0.0815447 0.05707031 -0.13189147 0.148151 -0.14514147 -0.12945968 0.024278374 0.08559099 -0.11970637 0.31929043 0.30725446 -0.14831449 -0.15166387 0.29280308 0.04971001 -0.120694615 0.2888074 -0.3012708 -0.15316658 -0.032520648 0.2691338 -0.25006405 -0.23237169 0.12739046 -0.032559525 -0.05414139 -0.43034437 0.024949746 0.29126775 0.124562085 -0.22036353 -0.58850944 0.27716127 0.17302482 -0.05151087 0.06276637 0.25755793 -0.2287559 -0.103900515 0.2892739 0.1333349 0.17743516 0.06765747 0.24185997
MX2X1 -0.35702476 0.7234698 -0.8582464 -1.1071855 -0.17288786 -0.21961224 -0.3644948 0.220192 -0.31371903 0.28898755 0.4071474 0.2725642 0.23808736 -0.2871581 0.43435493 -0.009913276 -0.30185065 -0.30974975 0.08434361 0.30018845 0.0050205966 -0.13091956 -0.47536993 0.16772148 -0.076780416 -0.3900422 0.25019267 -0.09274398 0.12295917 -0.36021706 -0.1299373 0.09260383 -0.18350936 0.20287558 -0.035267804 -0.19257264 -0.13436143 -0.12590611 -0.020915793 0.02713769 -0.14684367 0.121211626 0.3431475 -0.1843819 0.18436025 0.21065806 -0.111255474 -0.010211466 -0.11451848 -0.13092953 -0.04657316 0.31693795 -0.13914417 -0.058001753 -0.020048076 -0.23036827 -0.24759987 -0.07273869 -0.12655069 -0.31274843 0.16652815 -0.0025123763 -0.15001364 0.068403356 -0.11653333 -0.16926704 0.081677616 -0.12686235 0.016766176 0.18829533 0.0073878835 -0.016989779 -0.19178572 -0.22714666 -0.037091456 0.1485345 0.050602976 0.23206118 -0.031735864 0.25325546 0.25115198 -0.124912895 -0.24186967 -0.0535151 0.057092685 0.097000316 -0.31262198 -0.12562533 -0.04067438 0.06669567 -0.19389626 0.026745446 0.30587274 0.0078096353 -0.094464146 -0.09935098 -0.054319855 0.38499817 0.09963915 0.020310516
