10 100
sdffsrx -0.0042002616 0.0163489 0.098260365 0.041152325 0.006493968 0.032078482 0.11760543 -0.070902884 -0.054444667 -0.2151861 9.641333e-05 -0.22548974 -0.019210234 0.12913835 0.10314194 0.22957645 0.00084712246 -0.036208242 0.10275216 -0.12182344 0.17235152 -0.030392392 0.12857343 0.18099563 0.22096308 0.096712045 -0.04328348 0.1548056 0.06415195 -0.102777615 0.19189791 -0.01928141 0.05356936 0.12804353 0.22619417 -0.0793099 0.05358785 0.00039550965 0.038560133 -0.039828047 0.1496504 -0.0081832325 -0.15414518 0.07913407 -0.03128522 0.002590839 -0.24346219 -0.24409954 0.02045467 0.009752428 0.09750222 -0.23347537 0.19868779 -0.012165383 0.0064568087 0.06593474 0.055159893 0.30092937 0.28552607 0.052796368 -0.14535445 0.021389563 -0.064341284 0.034401834 -0.07150604 -0.033459686 -0.0809228 0.013376792 -0.07704758 0.014243921 -0.16394302 0.031110082 -0.035331327 0.2454231 0.009007403 -0.28873825 -0.104754366 -0.1666371 0.16984293 -0.06336275 -0.07277466 -0.0053509553 0.015113321 -0.08872405 -0.0054013897 0.0020511188 0.04853324 -0.15659636 -0.10884384 -0.074741505 -0.08949894 -0.052157577 0.100787945 -0.031127833 -0.0010516938 0.09371536 -0.0046542175 0.16176607 -0.014544765 0.01174621
nand -0.091686696 0.007662631 -0.037594855 0.13733536 0.035817225 -0.0037539825 0.101107076 -0.07003537 -0.057758577 -0.14087425 8.08691e-05 -0.101546794 -0.020135863 0.07859692 0.015431551 0.17217478 0.0019077531 -0.06916288 0.09263946 -0.19259943 0.080272116 0.0060755727 0.103950955 0.121093325 0.11887886 0.07909846 -0.098485015 0.13169155 -0.019555543 -0.079863764 0.22232533 0.0430633 0.065752655 0.1474563 0.12483787 -8.163584e-05 -0.014342677 0.051357586 -0.012121591 -0.007648253 0.2104303 -0.03125691 -0.095874086 0.028961962 0.047128752 -0.026117278 -0.22108032 -0.1311538 0.067976266 -0.020059843 0.06744998 -0.05305872 0.14827438 -0.031148436 -0.0037664922 -0.03608288 -0.069145486 0.111504786 0.22048761 -0.033039212 -0.08791318 0.039927892 0.0770303 0.066112414 -0.10383693 -0.059332322 -0.13293806 -0.015190564 -0.07560149 -0.000875142 -0.11630494 0.06471548 -0.031878345 0.16456908 -0.012626204 -0.258375 -0.10951505 -0.091810845 0.16110177 -0.05719031 -0.051055223 -0.024931261 0.015332108 -0.0008574578 0.0021253547 -0.12490358 0.074632205 -0.027245674 -0.06825469 -0.03798815 -0.1118663 0.006291808 0.09429327 0.033851005 0.016778102 -0.038780484 -9.372048e-05 0.18294565 0.07779848 0.018809177
aoi -0.014087958 0.13565312 -0.076863326 0.23550476 -0.011560938 -0.0080905 0.19083686 -0.21959688 0.0040591345 -0.13113637 0.037675723 0.03355527 0.09826215 0.08025428 -0.05530852 -0.03904746 -0.05448421 0.05027911 -0.17699203 -0.3287165 -0.06595528 0.061417468 0.014827069 0.06620589 0.027026521 0.074391074 0.0101511 -0.016974933 -0.0888831 0.0003708004 0.0047380175 -0.021042572 0.05233189 0.12972668 0.06947169 0.009485658 -0.05441527 -0.05029129 -0.11684056 -0.16540016 0.13713644 -0.07702898 0.07782885 -0.0495915 0.106958926 -0.053052865 -0.47775948 -0.11353799 0.049037866 -0.050512884 -0.16675644 0.021138819 -0.03502981 -0.22807615 -0.037908826 -0.01610635 -0.028272318 -0.055993274 0.07247453 0.046306446 -0.022998774 0.03162958 0.03784257 0.14241678 -0.08842231 0.041723054 -0.31652534 0.031234963 -0.104688324 0.027967343 0.057086486 0.07698461 0.0706831 0.19743487 -0.08883938 -0.24583009 -0.071995966 -0.03598228 -0.018662846 0.009017986 0.0798221 0.17950737 0.01168483 0.055073816 0.00917801 -0.17121735 0.20625275 0.05682227 -0.041939497 0.038729634 -0.019938981 0.0492484 0.11825587 0.04846607 -0.20769443 0.07542659 0.0063012615 0.10845122 0.11740352 -0.0522271
invx -0.23372151 0.06790381 -0.023041623 0.19895342 -0.10257384 -0.1467904 0.22281805 0.013081968 -0.108898 -0.25815517 0.063451014 -0.13687088 -0.14215197 0.0908061 -0.07830543 0.10917667 -0.045484204 -0.117250726 -0.009140599 -0.29533932 0.05419195 0.06515024 0.2408413 0.1718657 0.14555183 0.020719009 -0.1282531 0.014432164 -0.028424995 -0.08647539 0.24929895 -0.039619777 0.14961402 0.105366 0.10900521 0.12582332 0.124540016 0.058415204 0.07731702 -0.101693265 0.24569991 -0.07785594 -0.18876447 -0.12737092 -0.016494565 0.002269774 -0.3316126 0.037573148 0.07451126 0.052174035 0.032451585 -0.081691526 0.097941585 0.10191661 0.03357813 -0.056331377 0.13666296 -0.036992993 0.13078323 -0.011121019 -0.12708205 0.09236163 0.13239385 -0.10505385 -0.08024576 -0.038449954 -0.19202273 -0.077253275 -0.1169392 -0.04775584 -0.06259622 0.14612032 0.039664168 0.16859713 0.013770006 -0.30674672 -0.22821195 -0.089383475 0.11263538 -0.029502723 0.05802615 0.02393772 0.18398067 -0.020366078 -0.025673088 -0.19375697 0.08663288 -0.028911665 -0.13650446 0.08027314 -0.026427306 0.12113863 0.06907616 0.00027280484 0.10611138 0.062215537 -0.090532444 0.07070289 0.07040388 0.061962187
nor -0.22626254 0.22157751 0.048346046 0.08820647 -0.035572294 -0.0278601 0.25315008 -0.08339551 -0.059255164 -0.19566265 0.060646962 -0.06385706 0.06090206 -0.12556097 0.099553734 -0.043384593 -0.11451322 -0.12750512 -0.18435611 -0.13371389 -0.038671095 0.10201016 0.24022959 0.16618659 -0.07933545 0.06717815 0.03208761 -0.121799245 0.02467322 -0.026332866 0.10295818 -0.17159007 0.012322608 0.063958175 0.1445151 0.16087152 0.10158967 0.050452325 -0.023147518 -0.10773723 0.17550173 -0.032419108 -0.041547716 -0.049627326 0.058459215 -0.09336918 -0.23664689 0.01413315 -0.011426319 -0.07596631 -0.017370762 -0.09269527 0.083746195 -0.12408388 -0.06764996 0.059573818 0.13070698 0.0702053 0.14445497 -0.087907836 -0.0178932 0.01828125 0.16567059 -0.028184507 -0.03759919 -0.0391013 -0.20385183 0.15637073 -0.19749817 -0.119308494 -0.030689057 0.053711772 0.1400507 0.3033567 -0.13345231 -0.16764055 -0.26036948 -0.0669418 -0.07880168 -0.00028822408 0.026231835 0.03462671 0.17870581 -0.063874446 0.033050194 -0.12372659 0.11834363 0.08961805 -0.098893225 0.0014534421 -0.0052147233 0.07067452 -0.009785809 -0.02994697 0.12074285 0.1604316 0.009553051 0.01454187 0.08912289 -0.16676618
and -0.13997082 0.052615613 0.04870187 0.2858801 0.04917967 -0.007789321 0.23293099 -0.0785866 -0.17929007 -0.14777675 0.029258281 -0.037729178 0.057998847 -0.02702811 0.02885022 0.088296436 0.05744431 -0.043722767 -0.10550931 -0.31735742 0.0065949387 0.11913255 0.27329 -0.05580703 -0.10141078 0.16510396 -0.14429529 0.076993965 -0.15114865 0.050989747 0.19419962 0.041202895 0.03972776 0.01219254 0.03316487 0.10023286 -0.09111093 0.0916258 -0.110956565 0.006937691 0.3506758 -0.10707224 -0.07654756 0.022616476 0.21353048 -0.09744202 -0.20012219 -0.055609114 0.1504453 -0.088459596 -0.03295369 -0.024252811 0.19314027 -0.17046458 -0.11883055 0.024947627 -0.1794944 0.007700354 0.13135819 -0.07846902 0.04418027 -0.046794843 0.18448144 0.12854426 -0.09939555 0.043597918 -0.22823891 0.17886803 -0.16922073 -0.081963584 -0.090430714 0.06682118 0.10515593 0.18797092 -0.11167291 -0.17386946 -0.08257452 -0.07133217 0.073432736 -0.15840444 -0.15195501 -0.10192885 -0.011891614 0.04185689 0.035991423 -0.23779705 0.20969245 0.1302512 0.008596483 -0.055491827 -0.07303655 -0.017993854 -0.04719081 0.06489317 0.10347208 -0.03978644 0.07450682 0.060783636 0.14746097 -0.07672004
oai 0.059682228 -0.0061810655 0.115662925 -0.07246383 0.110462196 0.09311016 0.09281032 -0.08154003 0.013901377 -0.16116965 0.056395546 -0.18550748 0.03478885 0.10844571 0.17696346 0.2581107 0.076392025 -0.039268024 0.19682726 0.03884369 0.2027807 -0.07467332 0.1848651 0.20736134 0.13832217 0.15236428 -0.035658263 0.069235325 0.18418632 -0.14791405 0.2493923 0.066881835 -0.02757724 0.20858295 0.2198283 -0.046843752 -0.027649147 -0.057901867 -0.031289447 -0.018599505 0.19031823 -0.0031856678 0.016473288 0.054875907 -0.020660266 0.08997707 -0.092687204 -0.3792277 -0.09206752 -0.082140565 0.19701776 -0.31301194 0.12234193 -0.0015329861 -0.06978184 0.035855055 0.007202867 0.38224223 0.3076895 -0.10170071 -0.16922352 -0.020299887 -8.299726e-06 0.0735377 -0.056594063 -0.075399056 -0.05775615 -0.018633757 -0.09022119 -0.06645047 -0.24700049 -0.042379018 -0.09577437 0.33219227 0.03855837 -0.33371598 -0.12490331 -0.10910296 0.10548972 0.04796619 -0.07971461 -0.082027845 -0.04460021 -0.098077685 0.025023855 0.05243073 0.08311206 -0.1852359 -0.16639334 -0.17318977 -0.16711937 -0.11666213 0.014571571 -0.049717143 0.00091621286 0.051486246 0.14205861 0.14041898 -0.09592822 0.008555164
or -0.12129305 0.01328321 0.15177254 0.30285966 0.0023198007 -0.015193214 0.18047635 -0.0921856 -0.1661143 -0.17151861 -0.011837561 -0.07326454 0.08104684 -0.12390977 0.080652416 0.17157273 0.003151273 -0.15681033 -0.07867958 -0.23890913 0.060979933 0.19965518 0.18218282 -0.09619996 -0.14410953 0.18815956 -0.17924118 0.18290675 -0.15072578 0.06614693 0.07842497 0.024113858 0.06792533 -0.020225774 0.07934866 0.05067608 -0.06823749 0.1454517 -0.10381527 0.111975476 0.31095076 -0.02109783 -0.16063792 0.11307334 0.20436457 -0.22674786 -0.1336266 0.0067504896 0.24660073 -0.03389243 -0.06674939 0.05008627 0.36312053 -0.19299662 -0.026452353 0.16399214 -0.23009375 0.17095645 0.2539605 0.04454476 0.07355759 -0.020690855 0.065452196 0.16521767 -0.0545557 -0.019660661 -0.22603644 0.2636975 -0.09409903 -0.102148704 -0.09228828 -0.0009867441 0.10657056 0.08323726 -0.17111404 -0.10714508 -0.051393732 -0.19573344 0.13682288 -0.27391705 -0.2601679 -0.06833246 -0.014118824 0.05170897 0.060291205 -0.12796947 0.1258526 0.2190619 0.103951536 -0.06594287 -0.06020242 -0.07787421 -0.08710525 0.13374892 0.12297606 -0.073261715 -0.047472 0.10578288 0.1712844 -0.124492325
xor -0.07904882 0.011672689 -0.024517076 0.18608119 -0.11165599 -0.0025987516 0.1454637 -0.25234658 -0.018160705 -0.06373624 -0.0719087 0.064436555 -0.005427757 -0.12516756 -0.12834486 0.015819466 -0.24003641 -0.17452945 0.028643958 -0.21244392 -0.07182872 0.17747635 -0.010525249 0.06744711 -0.1671947 0.095739186 -0.13666375 -0.091392204 -0.051808417 -0.0022504434 -0.017782785 0.051761806 0.12231298 0.10928603 0.097750165 0.033118196 -0.14211005 0.11161501 -0.06369944 -0.10302307 0.22074941 -0.09210834 -0.023573179 0.0008769081 0.076539606 -0.26696742 -0.27057683 0.07516348 0.16728523 -0.0762011 -0.14607328 0.15312663 0.29362032 -0.07116968 0.05670676 0.06704391 -0.15042903 -0.07649278 0.1402918 -0.023193402 0.07339271 0.00097525155 0.040473107 0.14114405 -0.041853394 -0.0899394 -0.31079465 0.056013495 -0.059680045 -0.059263807 -0.058632977 0.052159384 0.070482366 0.040235907 -0.11850862 -0.09431971 -0.16445872 -0.1250418 0.08184979 -0.074978344 0.02496635 0.043497697 0.066453755 0.019103112 0.042683933 -0.124059595 0.07207814 0.290778 -0.028322343 0.07886254 0.07710443 0.015423789 -0.07372995 0.15992343 -0.13960887 -0.08720685 -0.117352165 0.17800546 0.16610493 -0.07038551
mx 0.1393546 -0.0019192236 0.10805406 0.16094898 -0.17058271 -0.08549922 0.057163235 -0.33461773 0.0020950055 -0.25571302 -0.018906148 -0.2328443 0.26339564 -0.09932433 0.07877274 0.11795833 -0.18103768 -0.19620572 -0.15459238 -0.1279561 -0.19075884 0.31696984 -0.33090785 -0.26289186 0.16640647 -0.017421385 -0.066924326 -0.26356322 0.21466365 0.014568518 -0.070357606 -0.15744781 0.02173045 0.41820282 -0.18527344 0.16904566 -0.025276624 0.096163526 0.1324371 -0.2388251 0.12765157 0.054980177 0.17628695 -0.19727671 -0.20612447 0.038047083 -0.42959976 -0.014476892 -0.073024385 0.14471301 -0.18736333 -0.15884009 -0.023434652 0.119761914 0.009990156 0.26377106 0.27850667 0.17227368 0.09769435 0.16294067 -0.10672593 0.16299072 -0.01112533 0.07487995 -0.021948833 0.07606213 -0.49053997 -0.31084222 0.024906738 -0.19777097 0.08967316 -0.0658997 0.23805341 0.031375203 -0.21406196 -0.27023333 -0.08169493 -0.40951058 -0.10499921 0.28564483 0.37687203 0.18831961 -0.07603227 -0.03193811 0.27694649 0.07182368 -0.3454676 0.028710237 0.30341166 0.27120066 0.0008316092 0.27526036 -0.08433063 0.18027186 -0.23870571 0.30356544 -0.2627036 0.10247535 0.18256117 -0.20332056
