14 100
SDFFSRX1 -0.1587748 0.07266714 -0.31314722 0.004560061 0.14992252 -0.16011931 0.013533791 0.27625963 -0.12346228 -0.020430911 -0.04797031 -0.043003213 -0.2102308 0.064581886 0.1344977 0.056894828 0.20307635 0.093007125 0.07790956 -0.10121976 0.019304508 -0.07575135 0.13037345 0.11115546 0.22681579 0.06586414 -0.17130543 0.07583309 -0.09294635 0.09412014 0.36303145 0.028113978 -0.009955699 -0.06518886 -0.0681874 0.009084981 -0.06145829 0.11709764 0.082678445 0.03754898 0.04745794 -0.013114918 -0.01569314 -0.033264343 -0.0054750093 0.07033502 0.082543634 -0.08343963 0.007386076 0.0010179514 0.2294525 -0.08316424 -0.14731725 0.02971568 -0.15048075 -0.15282229 0.04107339 -0.026432477 -0.028221462 -0.06301444 -0.005562956 0.10488159 0.26468194 0.053172734 0.036876388 -0.025042085 0.2463975 -0.04931755 -0.017903926 -0.0036459605 -0.03484965 -0.054515183 -0.0736888 0.03543848 0.099629514 -0.0680929 -0.10309829 0.14376101 0.10606105 0.07384654 -0.016167521 -0.13615966 -0.03922204 0.011490912 0.08199455 -0.12333937 0.069542244 -0.0045198053 -0.054099794 -0.15083234 -0.07950208 0.11114812 0.09919379 -0.097773686 -0.015990037 -0.15778992 0.18346938 0.11985025 -0.03903952 0.18686217
INVX1 0.20325176 -0.08567796 -0.39553997 -0.23666428 0.19418482 -0.10507346 0.027614996 0.17427514 -0.015894335 -0.050194018 0.114299074 -0.08692879 -0.06362612 0.15413877 0.0918585 0.13021003 0.28326854 0.1234974 0.03518538 -0.12688345 0.057454564 -0.11340233 0.32075375 0.09358945 0.12782153 0.1354334 -0.027131522 0.14382416 -0.12370548 0.095162764 0.33829236 0.04898905 0.005088272 -0.05202627 0.055400986 0.11559446 0.12483948 0.027160915 0.03957117 0.23617102 0.24928825 -0.05682554 -0.19063176 -0.019648597 0.035780553 0.08632632 0.04803633 -0.14003773 -0.046196934 -0.06377681 0.16697088 -0.10747626 -0.12822579 -0.05569862 -0.105955176 -0.058152873 -0.0838807 -0.011602428 0.09872336 -0.02483613 -0.13822998 0.0040201345 0.1905171 0.0070261247 -0.042571384 0.032217007 0.0110548325 -0.13897258 0.11920193 -0.08380646 0.041272428 -0.091523744 -0.027578471 0.155085 -0.0214638 -0.12511098 -0.012368928 -0.058518503 0.11704725 0.14006549 -0.09124273 -0.01573595 0.03151986 0.016945455 -0.14696492 -0.18126583 0.05332033 0.0755341 -0.023276214 -0.17754722 -0.09337972 0.019938776 0.084995575 -0.07006402 -0.07722485 -0.09088931 0.31212237 -0.015916813 0.05323645 0.0029790802
NAND4X1 0.06269216 0.037406422 -0.43148205 -0.26145574 -0.0054474478 -0.012233577 -0.03313477 0.065485224 -0.06778216 -0.04459065 -0.103104554 0.0107455375 -0.15567867 -0.08174745 0.055839185 0.022846943 0.15935515 0.05518548 0.11124555 0.0048086313 -0.004553793 0.024751602 -0.017764507 0.24289104 0.15187143 0.11519318 -0.07357281 -0.004869928 -0.06031434 0.12105977 0.20911916 0.10895799 -0.056230552 -0.071541145 -0.06562462 -0.041534662 -0.15083618 0.08301041 0.04245021 0.05708995 0.07420874 0.018084463 0.08820907 -0.034851376 0.03634224 -0.032829624 -0.032209873 -0.056542914 0.05581325 -0.08637956 0.12905677 0.04154386 -0.14359216 -0.02768641 -0.09583396 -0.11570913 -0.015314452 -0.058960788 -0.013522943 -0.04153055 0.1050254 0.10595834 0.2187363 0.1484092 0.13849545 -0.14962193 0.14678109 -0.047404964 0.036535412 -0.08250255 0.0317807 -0.10206245 -0.14369176 -0.04576135 0.0958991 0.004788244 -0.023817617 0.12582147 0.10541507 0.09332727 0.050074823 -0.19209762 -0.0065059196 0.061532646 0.040211633 -0.062249996 0.117244355 0.18195704 -0.107363746 -0.19254294 -0.054836903 0.13552648 0.1078674 -0.056264553 -0.09636801 -0.15456055 0.17534417 0.14426762 0.013508979 0.15227915
NOR2X1 0.07672414 -0.068016484 -0.47105885 0.024495233 0.20573547 -0.15282229 0.09198769 0.18645957 0.049000543 0.07768856 0.096570715 -0.098422624 -0.12073564 0.1504387 0.067403264 0.04387391 0.09294905 -0.09555272 0.002272724 -0.049559787 0.06810238 0.10042816 0.20055233 0.11082068 0.2470904 -0.0319364 -0.09510303 0.1379711 -0.16143548 -0.08103558 0.28669992 -0.05927512 0.016872136 0.014460134 -0.17195816 0.15281583 0.18547852 0.03528133 0.14321037 0.07418271 0.112429105 0.14967048 -0.13538082 -0.2300401 -0.016316986 0.09999423 0.06730509 0.04494439 -0.018704003 0.12408875 0.15181123 -0.055176415 -0.024626844 0.021879332 -0.057476483 -0.11530213 0.068525665 -0.011731383 0.07075156 -0.066244885 -0.07558166 0.074914865 0.28469554 -0.13419265 -0.0436783 -0.029592134 -0.0193691 -0.052381024 -0.058946747 -0.18718833 0.090997875 -0.04211601 0.097749256 -0.12913826 -0.11219747 -0.24865848 -0.06439342 -0.117620006 0.009090652 0.1473443 0.00016545836 -0.060941555 -0.06846964 0.011248596 0.03830612 -0.18025622 -0.089104995 0.057874188 0.0014037045 0.021525769 -0.2074895 0.11771821 0.02819031 -0.014680398 0.19394991 -0.004948272 -0.057864163 0.065185964 0.2029883 0.019484667
AOI22X1 0.050118472 -0.04097047 -0.27799752 -0.06874615 0.2778705 0.21378689 0.2606554 0.03413494 0.09359519 0.19137123 -0.024295017 0.08124219 -0.02431387 0.01623041 0.21864042 -0.20877425 0.086644344 0.11924981 -0.181221 0.12816034 -0.043797903 0.019275555 0.06566878 0.07164318 0.13179187 0.0052048075 0.06540909 0.038974777 -0.12965058 0.029471867 0.19371706 -0.1763874 -0.19448127 -0.13492087 -0.14534082 0.040243704 0.05625496 0.025313776 0.107864425 0.022391532 -0.012697173 0.09573605 0.034953225 -0.12378696 0.08860832 0.16226105 0.12772587 -0.058490485 -0.05334609 -0.060731243 0.20017208 -0.11172451 -0.13661456 -0.19030908 -0.14776407 -0.05739076 0.14965555 0.123397104 -0.012038128 -0.13813601 -0.0011066791 0.027101442 0.1989839 -0.030809568 0.07300532 -0.05121579 0.18563633 0.14086093 -0.12286955 -0.00077831943 -0.04100882 -0.19924435 0.10448655 0.0898728 -0.10847738 -0.21723107 -0.17503704 0.09647354 -0.08475267 0.073866144 -0.10703184 -0.121111706 -0.05681883 -0.10955824 0.16031973 -0.072766915 0.10766756 -0.08220768 -0.11010896 -0.19130781 -0.2095006 -0.006035027 0.078986794 -0.19117232 0.073602945 0.059490755 0.12862068 0.13846572 -0.047932565 0.009407571
AND2X1 0.16718887 0.1598929 -0.4210453 -0.35372457 -0.047031388 0.006887913 0.1523044 0.20547776 -0.23257577 -0.15870069 0.04500582 -0.13235444 0.039261546 -0.23833063 0.14754416 -0.09028311 0.07530169 -0.054979503 -0.07021943 0.014385131 -0.051440988 0.107593276 0.032758817 0.23072478 0.05494335 0.069427505 0.050500397 0.0032703225 -0.072882526 0.04148123 0.11856486 -0.06289458 -0.049528882 -0.014249429 -0.0708979 0.050232146 -0.011267655 0.074493535 -0.003666258 0.044352528 -0.045495853 0.17636983 0.01785817 -0.007973763 0.07318203 -0.0958791 -0.014181967 0.077525035 -0.022295365 -0.10632659 0.10250753 0.16371822 -0.18651363 -0.16958618 0.0117335655 -0.18200845 -0.020414539 -0.02302312 0.116687804 -0.12575595 0.02948355 0.06460436 0.3123326 0.07085876 0.019960707 -0.24962908 0.08332229 0.062932745 -0.09077572 -0.053912755 0.036326658 -0.026981467 -0.10164655 0.017542247 -0.023321703 -0.0014120853 -0.06888167 0.0524729 -0.04408446 0.07209865 0.020973578 -0.16802934 0.11416277 0.11002601 0.020240778 -0.020310484 0.0959807 0.14252888 -0.13452226 -0.14345242 -0.15716963 0.11518005 0.19193535 -0.058152568 0.09406421 -0.06669401 0.14312918 0.24722345 0.11863685 -0.028254345
NAND2X1 -0.033047497 -0.107736714 -0.23312502 -0.19544455 0.07565854 0.032793254 0.23387526 0.26983806 -0.12805429 -0.13120791 0.077273324 -0.053846244 0.0167002 -0.094850644 0.13144737 -0.049821056 0.2086557 -0.0038940522 -0.049818065 -0.099987686 -0.09274515 -0.047809187 0.24245195 0.14372435 0.0042233 0.07424678 0.03695943 0.09867409 -0.10682093 0.09396393 0.33928323 -0.07601611 -0.078756824 -0.03305205 -0.043545745 0.2088231 0.1277285 0.06293153 0.00066896644 0.1704602 0.21596083 0.030159047 -0.1707654 -0.029076004 0.11367734 0.060779165 0.0210864 -0.016094197 -0.061610002 -0.105450094 0.20702958 -0.025342867 -0.1727431 -0.09805349 -0.12813638 -0.17324741 -0.051869918 -0.014964963 0.13641247 -0.20666246 -0.08486769 0.030107876 0.3850167 -0.015202696 -0.07539295 -0.09001845 0.019085541 -0.041156627 -0.07396065 -0.10670581 0.00883587 0.013607908 -0.018137664 0.23225458 -0.039067153 -0.12334359 -0.13331705 0.029064637 0.048248235 0.12530768 -0.048431925 -0.12988934 0.10912384 0.02852549 -0.07029904 -0.21495825 0.073521264 0.08610983 -0.07836746 -0.1776011 -0.17863376 0.09467023 0.11628534 -0.08012448 0.13869722 -0.08239275 0.27889585 0.085521296 0.10033027 -0.07414601
AOI21X1 0.027668837 -0.1102794 -0.222241 -0.13916162 0.06464265 -0.021324988 0.25224635 0.09140383 -0.17522864 -0.047302 -0.0597617 -0.20488344 0.014999167 -0.112128615 0.16154332 0.081564784 -0.008420757 -0.056128763 -0.05081591 0.19013782 0.00302917 0.23139614 -0.021837158 0.023950577 0.14176506 0.12895411 -0.0113415755 -0.08284126 -0.089601666 0.0584069 0.21599591 -0.098216586 -0.08287191 -0.0317674 -0.06477075 0.12177517 0.068268865 0.22163066 0.22348614 0.1652079 0.17726108 0.094573654 -0.086118914 -0.122149244 0.039629437 0.020036984 0.018085899 0.074281484 0.08027086 -0.105339065 0.11452959 0.04860019 0.015836345 -0.09937522 0.038934942 0.13746282 0.10588751 0.15107259 0.13539308 -0.0073729954 -0.02042697 0.108137324 0.112172015 0.03734918 0.14972998 -0.19228442 -0.03729013 -0.033881396 0.0889238 -0.08771806 -0.034039795 -0.3193418 0.102751695 -0.0128198685 -0.20019461 -0.21408284 -0.19380523 -0.1821776 0.06548302 0.079606734 -0.064954065 -0.16244613 0.07999378 -0.096906714 0.15594286 -0.0074493736 -0.04870786 0.15932521 -0.018649857 -0.17223212 -0.17976785 0.07582984 0.06679708 -0.060302787 -0.071492895 0.041528247 0.041979596 0.2483204 0.05815067 -0.06272184
OAI21X1 -0.31385922 0.0029487866 -0.28144747 -0.03875083 0.07867172 -0.25683427 -0.05536597 0.33976975 0.061894607 -0.100934036 -0.078679286 0.008566836 -0.45615202 0.09697738 0.011072628 0.03154483 0.24146123 0.034299202 0.142772 -0.04409944 0.06017128 -0.08386392 0.18229817 0.3038264 0.23692845 0.053652514 -0.23823823 0.0970894 -0.07072978 0.13962531 0.3240201 0.05285434 -0.0048010726 -0.17108364 -0.076664135 0.023845099 0.029596396 0.01923423 0.12903613 0.0727376 0.08796293 -0.008448643 -0.024475422 -0.18461744 -0.0875702 0.08750369 0.09932376 -0.05000694 0.029879555 0.118983306 0.27938583 -0.16480726 -0.16289476 0.16189498 -0.16597074 -0.1325318 0.20616479 -0.036731165 -0.08203123 0.03474028 -0.0029093884 0.19813883 0.26330748 -0.061596096 0.17619953 -0.04280119 0.31763458 -0.09482684 -0.014357539 -0.1244373 0.094364695 -0.03454619 -0.07051597 -0.063686185 0.19393882 -0.09656587 -0.14496385 0.197312 0.10893398 0.100226186 0.0012244459 -0.039169967 0.020356948 0.02331054 0.033325464 -0.1537591 0.12979995 0.043102287 -0.12740348 -0.13768268 -0.0042318907 0.16605824 0.041887514 -0.15300599 0.058947872 -0.15096799 0.10755148 -0.04017848 -0.106257394 0.33675233
NAND3X1 0.101298094 0.097723715 -0.37518546 0.22704123 0.28169346 -0.20472309 0.121235184 0.22067805 0.031035226 0.17419863 0.14140695 0.18864758 -0.14625071 0.17733596 0.26927117 0.052752234 0.20529789 0.035083465 0.08255371 -0.06834998 0.110737756 -0.108638 0.2107601 0.06721554 0.101530224 0.070496075 -0.24209675 0.057239447 -0.02857796 -0.0370694 0.30306077 0.07628489 0.009999503 0.020129938 -0.0545104 0.018169576 -0.10672408 -0.031429958 -0.13879466 -0.092520446 -0.05425858 0.02082623 0.20407009 -0.06837324 0.03450398 0.1317627 0.13709055 -0.2659411 -0.061639123 0.023936234 0.19157338 -0.15559769 -0.16341394 -0.02907841 -0.23682338 -0.13260302 -0.03943937 0.14532623 0.007949199 -0.14886078 -0.0085644005 0.08707807 0.19546609 0.14498535 0.019684903 0.0006379645 0.12627569 0.032112136 -0.037046984 -0.10195334 -0.12498281 -0.13831009 -0.1083098 0.11281472 0.08892679 -0.20999894 -0.15907736 0.19878842 0.015802003 0.18303722 -0.015126214 0.03271826 -0.25556162 -0.0033441363 0.21394388 -0.019925872 0.10163384 0.0075492193 -0.03255264 -0.18016349 -0.14058612 -0.07569936 -0.13802935 0.03223682 -0.20469184 -0.26424524 0.15811144 0.10471488 -0.1690088 0.16063507
XOR2X1 0.32072788 -0.18567857 -0.36403385 -0.18940796 0.02631846 -0.0080066165 0.19941169 -0.0015331912 -0.009714614 -0.0003700408 -0.036505964 -0.06840404 -0.057142556 -0.090530746 0.09297811 0.04693658 0.007905615 -0.11463477 0.081896536 0.13600872 -0.012342957 0.22784282 -0.023967179 0.11727649 0.054208472 0.15792404 -0.107265145 -0.08072513 -0.05056142 0.085852906 0.1336703 0.026115451 -0.07006732 -0.00067132805 -0.13201573 0.084058344 -0.049985226 0.081812724 0.0959851 0.07670043 0.21339303 0.09125903 0.040856887 -0.17278568 0.0041191634 -0.040361334 0.0018788001 -0.05581851 0.046102174 -0.050508756 0.07905737 -0.040169563 0.06249152 -0.04837341 -0.061190616 0.124975845 0.010120419 0.14463769 0.13096456 -0.01957453 0.037442453 0.079442576 0.13777322 0.12822048 0.16206573 -0.15633853 -0.13209416 -0.08143726 0.058902245 -0.26144537 0.025472002 -0.2697796 0.07229505 -0.08367666 -0.15020598 -0.20423916 -0.122064665 -0.18765266 0.045907 0.21257472 0.020031838 -0.087497436 -0.09974324 -0.042105213 0.15802822 -0.0067997123 -0.047808833 0.30419064 -0.0033781067 -0.13723485 -0.11613532 0.047633488 -0.112580985 0.04605926 -0.20238708 -0.058278475 0.03301414 0.19586436 0.09004436 -0.027618308
OR2X1 0.15204832 0.13050933 -0.26883093 -0.114866376 -0.21104538 -0.09234243 0.24585631 0.4307495 -0.2907441 -0.28736869 0.048417266 -0.08535943 0.026764676 -0.36013678 0.2372268 -0.18323578 0.22202447 -0.11476089 -3.4604713e-05 -0.218175 -0.2385899 0.12161541 0.0582923 0.1960371 -0.013159485 0.13158844 -0.13330755 -0.024102433 -0.025209568 0.27503347 0.114382096 -0.045118146 -0.041960943 0.014006471 -0.32920492 0.11259203 -0.17537059 -0.03705184 -0.17236161 -0.15550439 -0.05290933 0.21033587 0.10959593 -0.03222011 -0.0018804813 -0.15574932 -0.08410999 -0.07643595 -0.14545816 0.036731172 0.07973563 -0.09286432 -0.34536478 -0.097009294 -0.26892352 -0.25500372 -0.06469584 -0.030153757 0.079769075 -0.1512965 0.090894274 0.053620834 0.5726928 0.2388543 -0.035637178 -0.07957046 0.0033207978 -0.018905817 -0.25186262 -0.33717456 0.17293546 0.15332462 -0.08762388 0.050921977 0.06424107 0.12100853 0.05491015 0.035046075 -0.13985823 0.3359125 0.23500124 -0.13201565 -0.14117718 0.24301644 0.09856592 -0.0448211 0.027179819 0.29452083 0.040463142 -0.081642054 -0.05578524 0.24434738 -0.028213128 0.06780827 -0.010253016 -0.13368674 0.26469076 0.1440192 0.20928398 -0.04777752
OR4X1 0.6038633 0.047328077 -0.6525347 -0.58108705 0.09892626 0.0884936 -0.04166347 -0.5344814 -0.0073774005 -0.07665158 0.22568516 -0.1391166 0.29459453 -0.12743574 0.2674322 0.27482063 0.12795469 -0.082190596 -0.2834415 0.17156021 0.21271361 0.36940268 0.056186993 -0.0133559005 0.261066 0.11928665 0.109583504 -0.13854511 0.037972186 -0.20369427 0.13277341 -0.007825361 0.038657814 0.21916524 0.03501124 0.17471522 0.12127175 0.20087565 0.15161744 0.19933878 0.103407875 0.19684167 0.1592704 -0.16162309 0.062514134 0.088419646 -0.1449812 0.15945101 0.06018244 -0.13909908 -0.048704065 0.2615068 -0.2517314 -0.15986133 0.23965156 0.132389 0.15110007 0.15631187 0.198821 0.07793329 -0.11511194 0.18711291 0.101867795 0.007363897 0.08228649 -0.2531608 -0.22644085 -0.00025669098 0.19172244 -0.10396944 0.0032507703 -0.33441186 -0.033865776 0.017715702 -0.19913699 -0.27417642 -0.051149853 -0.22602198 -0.085970975 -0.016791884 -0.010255745 -0.13992743 0.30580294 0.12988862 0.08822162 0.09911688 0.044682838 0.05152424 0.018036004 -0.11340865 -0.3001794 0.16570087 0.22736384 -0.011942469 0.15696359 0.20654581 0.013704088 0.074154824 0.11606725 -0.10631021
MX2X1 -0.17461964 0.070852585 -0.20096716 0.19090763 0.3485089 0.027190275 -0.041605018 0.13427141 0.2013377 0.28351173 0.0014676567 -0.21732515 0.12024745 0.6918113 -0.17248525 0.13406174 0.37308827 0.65214324 -0.0642152 0.20653886 0.13998947 -0.14757751 -0.17053595 -0.1179524 0.72037005 -0.06885131 0.3952845 -0.028751737 -0.14361513 -0.12876292 0.26348704 0.12120728 -0.2348383 0.00059537176 -0.24433051 -0.0739262 0.09715706 -0.18051371 0.35127735 0.09747635 -0.0063636326 -0.037590627 0.02758724 -0.33878767 0.061339237 0.745574 -0.22006515 -0.15141109 -0.15495163 -0.07034082 0.04834232 -0.1451689 -0.63427186 -0.036110107 0.013298546 -0.27432957 0.19486654 -0.28894946 -0.38284668 0.0011230787 -0.17581867 -0.06509419 -0.2099467 -0.16160052 0.095729 0.11113887 0.06404024 -0.4997766 0.27586845 0.26259032 0.09647077 -0.2947023 -0.06014115 -0.15235533 0.06388652 -0.38272864 0.3510609 0.07512053 0.010733887 0.28115237 0.14810255 -0.26804432 -0.1386427 -0.13210496 -0.1720613 -0.08171919 0.07664681 -0.5206078 -0.2342472 -0.12735662 -0.32765627 0.064010836 0.46136352 -0.3429354 -0.21770097 0.34528983 0.25173083 -0.037038367 -0.09469414 0.22738402
